digraph Tree {
node [shape=box, fontname="helvetica"] ;
edge [fontname="helvetica"] ;
0 [label="loan_percent_income <= 0.305\ngini = 0.348\nsamples = 13504\nvalue = [16591, 4794]"] ;
1 [label="person_home_ownership <= 0.5\ngini = 0.268\nsamples = 11899\nvalue = [15837, 2997]"] ;
0 -> 1 [labeldistance=2.5, labelangle=45, headlabel="True"] ;
2 [label="person_income <= 19996.0\ngini = 0.328\nsamples = 5794\nvalue = [7221, 1878]"] ;
1 -> 2 ;
3 [label="gini = 0.394\nsamples = 218\nvalue = [91, 246]"] ;
2 -> 3 ;
4 [label="gini = 0.303\nsamples = 5576\nvalue = [7130, 1632]"] ;
2 -> 4 ;
5 [label="loan_grade <= 2.5\ngini = 0.203\nsamples = 6105\nvalue = [8616, 1119]"] ;
1 -> 5 ;
6 [label="gini = 0.126\nsamples = 5269\nvalue = [7840, 567]"] ;
5 -> 6 ;
7 [label="gini = 0.486\nsamples = 836\nvalue = [776, 552]"] ;
5 -> 7 ;
8 [label="person_income <= 20262.0\ngini = 0.416\nsamples = 1605\nvalue = [754, 1797]"] ;
0 -> 8 [labeldistance=2.5, labelangle=-45, headlabel="False"] ;
9 [label="loan_percent_income <= 0.805\ngini = 0.026\nsamples = 139\nvalue = [3, 221]"] ;
8 -> 9 ;
10 [label="gini = 0.018\nsamples = 138\nvalue = [2, 221]"] ;
9 -> 10 ;
11 [label="gini = 0.0\nsamples = 1\nvalue = [1, 0]"] ;
9 -> 11 ;
12 [label="loan_grade <= 1.5\ngini = 0.437\nsamples = 1466\nvalue = [751, 1576]"] ;
8 -> 12 ;
13 [label="gini = 0.482\nsamples = 849\nvalue = [539, 792]"] ;
12 -> 13 ;
14 [label="gini = 0.335\nsamples = 617\nvalue = [212, 784]"] ;
12 -> 14 ;
}